{"layers":[{"inputs":[0.6731075239732507,0.6741898563508906,0.6704756962682201,0.6616856049210452,0.6471270020817077,0.6255532472595777,0.5948774922921523,0.5516050834778747,0.4896510734666216,0.3976402223564418,0.2518456328912151,0,0,0,0,0,0.5117483363124651,0.4907375186804994,0.4442541403976179,0.5388130484961435,0.6008993416178603,0.6436730367402846,0.6738703448366351,0.6952525855849021,0.7100353786784706,0.7195499534420308,0.7245711940162595],"outputs":[0,0,1,1,0,1,0,1,1,1,0,0,1,0,1,1,1,0,1,0,1,1,0,1,1,0,0,1,1,1,0,0,1,0],"biases":[-0.16648398959046248,-0.20871282562889423,0.45260436347244565,0.021850628947903277,0.44543549303672336,-0.2411142493834755,-0.07134008881580868,0.13540526743504766,-0.08021447036832258,0.3144172842999024,-0.3392100794620648,0.05565950591386161,0.3550098273503009,-0.19130822330327155,-0.09213847129391603,-0.4268609080305119,-0.19993666492158652,0.3491927333664028,-0.2311354667685512,0.37727561123596587,0.04087905393879408,-0.3325322072057187,0.36623152079390164,-0.3126217082224944,-0.07745215003176568,0.282773179787083,-0.23890213716678274,-0.4561398095325564,0.17234616442825576,0.4345538926991737,0.12081036738964834,-0.2908394020801865,0.09701981026240235,0.44229556339275583],"weights":[[-0.14491530017121274,-0.2398916072201537,0.1216403905411522,0.08629593798489549,0.2795376708118674,0.36007919419076595,-0.3119893189637526,0.4212672041854764,0.3718794812953134,-0.0006342047583851734,0.1735776942978652,-0.32588840263584995,0.3566002112795829,0.37083350955036404,0.06550800507555976,-0.36822604912918167,-0.221170801956725,0.32091533449237986,-0.034034767734469784,0.050564154549522226,0.06545214858730083,0.3909902283892207,0.35456908148194566,0.3587269559596288,-0.005641100473463348,-0.3710559059724902,0.13377780330563407,-0.2857989621835291,0.16363983564346135,-0.0745339648562162,0.17658578846819536,-0.35856957374514575,-0.1046515845514658,0.21466612044114988],[-0.13243934325666,-0.32534210694586824,0.14239851089607009,-0.07370652829953447,0.0192377269742676,0.26034831996762436,0.20836694124233088,-0.03652977594310285,0.38672029541546776,-0.3036337390341637,-0.27777864093989,0.17436390936391297,-0.386861718094876,-0.11623947442668917,0.4474167991689959,0.29638477086571896,0.06710808125216007,0.002710412866466623,0.19132753621787738,0.22800752466134006,0.4000770395434067,-0.09357325529197286,0.16014162195084397,-0.1392211813830671,-0.22667698829274496,0.24407189295178894,0.219463293704678,0.37046636558633395,0.2476874293529468,0.39277860385557684,-0.33645285898811134,-0.34716134334873544,0.05926757902223374,-0.14720373069793455],[-0.09493870740685195,-0.2266873824900429,-0.3361983049666266,0.3697888243161008,0.055667406575880846,0.08173337072164855,0.4826350800902728,0.36240784899680956,-0.02786244880034925,0.34300774078861407,-0.2865578821353323,-0.4813041100939712,0.31562070749575877,-0.30650691490999515,0.5237172402085969,0.15519164149443676,0.03949100051817936,-0.17394736345250802,0.10442504602273713,-0.17391165445792145,-0.22829165480154467,0.08182935027216841,0.13440361780585378,0.22470986501782259,0.3355321811322398,-0.23158055324894833,0.08477743409830889,-0.3793267336707019,-0.16004807216519124,-0.16220421225724926,-0.244986405852247,-0.18977406164662622,0.09343101429606637,0.21705812352973788],[-0.3246545416861278,0.18886247159724248,0.1250366861916507,0.09855769529827818,-0.11027308424774179,-0.2930497105031413,-0.3309151151082698,0.015316862813150058,0.235694982328695,-0.10323627231658389,-0.1270206104893957,0.060842311000497605,0.298921465131083,0.1386139509545661,-0.053111799225798326,-0.2343292407735808,-0.14090529368533977,0.1603275402622956,-0.12570465340650097,0.18310586906245543,0.16126013015335633,0.36256324545466356,-0.2105669227661613,-0.38689655695997266,-0.38834459453387643,-0.0018744641488748631,0.09918611481521586,-0.5121854970746111,0.29801421596528893,0.039918993157142674,0.2640649550032494,-0.07513138376431241,-0.16893588140825944,-0.43447818434625185],[0.3555015656307807,0.19766705200417795,-0.2108623593192558,0.3221335872650233,-0.3351910926307159,0.09160945395472997,-0.29184107988478586,0.342370105072507,0.24315282311069997,0.17473659430143673,0.319012629792798,-0.037318742894223704,-0.04180909210717783,0.18760824097354573,0.4910863938647971,0.2764820824415171,0.012906482500691176,0.16225708866481023,0.20103543030072618,-0.23595277937983558,-0.060982932034013115,-0.2037186798088633,0.10595146194319732,0.09199470203040945,-0.045353926523828636,0.21278405705960263,-0.22468703574416757,0.04066429414897327,0.3468004235589024,-0.12314380578701556,0.1654683834421229,-0.2095438164820659,0.27552078342304137,-0.2648720217339058],[0.26139989724390733,0.29771834174690565,-0.015928338428044038,-0.22442592071562756,-0.011893909348065362,-0.16949783999664314,0.32594609083118853,0.031692038357028315,-0.07764746336736988,0.34979038165634085,-0.36650712058802115,-0.11312971225741064,0.24471223128574252,0.012995303302292985,-0.004917993236306154,-0.2169053872943786,0.16876821296513897,-0.14974761540976939,-0.41541258895618727,-0.5460893485265512,0.23026060055561987,-0.2910632244996987,-0.2769043266440685,-0.30218321972302653,0.33401377940859706,0.3943198429681707,0.05817201057611814,0.12475223658219889,-0.2944583112122349,0.20433531767406926,-0.14033776031774775,0.12771879543301348,0.2288245750066088,-0.38547555047439575],[-0.28931314673259584,0.11401307791158768,0.34646893807573975,0.2795829222838513,-0.43635894392467817,0.275644635741001,0.14236733210005248,0.11605960169318183,-0.07317991315356882,0.28936432747127144,-0.07202920288740945,-0.12630029199249124,-0.19680306174515025,-0.28394196275381894,0.3559492499176116,0.09726806889086599,-0.44694171466393556,0.05564384365161908,-0.04255312340102957,-0.26164137301766516,0.05756684625360551,0.31419475283867915,-0.2425421814612323,-0.5147004927595056,-0.1982504955468978,-0.243458108533752,0.1586636029988839,-0.19847417245771112,-0.2995930857419639,-0.23090415463787475,-0.122385400824164,0.04030521981399404,0.002447716392419915,0.2075013547374671],[-0.23138679794862416,-0.049243960308166905,0.19392963470779662,0.01260672632032947,0.37105560941712135,0.049936575753224875,-0.07670771548346011,-0.3928218876148197,-0.06764824399817748,-0.1739139691343408,0.057980665298988265,0.22959737643682432,-0.08897446147066237,-0.3108890260707981,0.06655029416526827,0.20592076124534409,0.0017665464292625239,0.04440396757737158,0.025546405272163758,0.42707859726414865,-0.3626729413946784,0.03325918057114798,-0.26507972885988573,0.25717834882644064,-0.31512409917036477,0.09212641353303133,-0.39990437053914546,-0.345371978232216,-0.20517044181748192,-0.15308913123502457,0.09704547851827307,0.02566532472699317,0.0681507536765938,0.22390098566240926],[-0.27815701055495584,-0.007246007504024477,-0.40877028816165556,-0.009943384488953997,-0.29185506876364337,0.16397533725786753,-0.0336693091040942,0.1981531433323514,0.2537814508264085,-0.28452460950577174,-0.44975609003652284,-0.3822332683285865,0.2533072902173767,-0.3451368966513835,-0.03210770164962654,-0.15347577430407294,-0.10440406485104917,-0.2495522528581898,-0.01159831194035708,-0.15165955186311375,0.12343329278087846,0.05406382485625303,-0.2491202806725037,-0.016237868000246472,-0.1555991725565902,-0.4722721579927677,0.21182781189378946,0.2621407984491272,0.30938741398308184,-0.41767705228265317,-0.3486072285640179,0.3624391631614085,0.014521776372286185,-0.13627874259097555],[0.18470783800833127,-0.12468397287945175,0.4473487486852347,0.1368422127233632,-0.4499942466017197,0.22884681863227926,-0.42220587364392614,-0.1418733059710433,0.23369469485124858,-0.024754484260296347,-0.6698116714170894,-0.2576854063722047,0.03277423700594108,-0.1908707888591013,-0.18951627241070607,-0.26055160405936356,0.4456580427584309,-0.3003852763085958,-0.1985590669598958,0.3264274819059482,0.14187336206809875,-0.47847195753921745,-0.04441207414040753,0.07407407514260861,0.38018626869609334,-0.3639878351615401,-0.3285702344037339,0.28187489055573123,-0.2118811307178452,-0.38156671198086844,-0.24504666919736337,0.3357353003704779,0.2683265836473453,0.11303326334001397],[-0.2210803143618412,-0.46207950501408906,0.47131499338575317,0.03763614145861066,0.08303701578479973,-0.2020510495501293,-0.0019536167282579054,0.17415369725361873,-0.2785474630381883,0.27967344619100176,0.11933710336564585,0.04956424630095834,0.19048143621719843,-0.3379054166087325,0.4204282810423563,0.09246233816662493,-0.438115879292255,0.07963861753359597,-0.04187316183331282,0.04722811477869091,0.30590939556214036,-0.218085190336583,0.12915791962804385,0.3986602253547173,0.1453939623990299,0.07846728981555891,0.11736721104257353,-0.020304389111997292,0.2978144553114578,-0.14484386779486264,-0.05222586176995142,-0.43252728181145395,-0.3148836278253743,0.0020841173340697475],[0.033131923776752954,-0.2687252792473886,0.050555805504162006,-0.3560092505116502,-0.3729444015525646,-0.048499740890094234,0.27730928662943105,-0.10854792653850269,0.24062725966271065,0.31192225482647407,0.005579501201348541,-0.324980768888066,-0.21062030191288492,-0.1647054514537104,0.1376886146385858,0.20179768776654577,-0.13775180288109107,0.18468547004725258,0.08681724325014659,0.1167876869831252,-0.1764696874927201,0.2978890810152327,0.14580574408586003,-0.26691719886785137,-0.023982714174132377,-0.2765479177988289,0.044912234678220385,0.3010492489868338,0.1655184300905819,0.0039244545998676494,-0.1845426068227468,-0.1604116042137403,0.32098445824061894,0.27420900901418244],[0.08845588808362201,-0.13276736130736755,0.15412785171541923,-0.20161494269387548,0.06189167296196777,-0.28913999179866684,0.3237645781852851,-0.1415561312404331,0.10190473460417264,-0.22815108342885235,-0.23551489899880232,-0.42633665377003055,-0.17232341947584673,0.1710713043343364,-0.051262888247833406,-0.31113471119053776,0.42556507766547524,0.307471805210875,-0.3059016368255984,0.11055668844092945,-0.08442106149117286,-0.15970893528148522,-0.19479772881647106,0.2604079544340492,0.03018824515420225,-0.40921764270722527,-0.020312108237951737,0.1964559174026532,0.05216432575336731,0.18328802772421343,0.3906299439891636,0.36977776801238316,0.1391823186004304,0.43978134339191305],[0.06466715988906666,-0.2703856569228509,0.3120456383484885,-0.1284603988807125,-0.3274578496693468,-0.3425173768485773,-0.09467245257207291,0.10477053075351028,0.2685282545350255,-0.10365481380869407,0.053508292599813524,0.2610193200825572,0.002012679018947628,0.288249705114419,0.13736186676875378,0.024131628133624884,-0.3942179453660606,0.34930700192363684,0.2163061412367326,-0.1573307083078859,-0.1433332345986393,-0.02617112528111068,0.19504932213951837,0.17803865530384333,-0.0398073634358309,-0.488709713017352,-0.004540629038404749,0.3415564197216324,0.21163068494596052,-0.304827500308918,-0.13882722281614354,-0.39467114011868104,0.13901317939931634,-0.1633138244480077],[-0.0863473801516936,-0.32393716227507263,0.2704791147501395,0.03125280138219114,-0.42154889513876265,-0.5312401635153484,-0.308071004836536,-0.25302445084155645,-0.04180054385859373,-0.3237546407627111,-0.03814662439006461,0.4043341608089647,0.1521428840838754,0.39853732573827283,0.14337258974742642,0.29922517190375647,0.30350665631032825,0.3496529208360464,0.009054966712508009,0.29103998963368305,-0.09436167842808767,-0.1632224864639896,-0.2063093246324944,0.17768919040786102,0.2266026782245698,-0.42606429637097887,-0.2621857005367388,0.0021077326977954683,-0.13310777917876984,-0.005060694452887614,0.2537311346322946,0.011096095636338912,-0.017089621742811624,0.09141975874995356],[0.383139576439332,0.12447223893798522,-0.008378835320844862,-0.1281281761027695,-0.15234984518170006,-0.3635836264633069,0.23285470716140597,-0.037814676356813556,-0.14866945068993195,-0.12095464055304297,0.11005301660725748,0.31189526476736085,0.36048333419737855,-0.12559834534952613,-0.19845792172505153,-0.09155617696545358,-0.31073244529106797,-0.20961955500995924,0.38282138816289263,0.1871033226729889,0.07090772497608064,0.17900619963377107,-0.14247187227036492,0.30054823282718574,-0.30405783151246085,-0.1225317500041744,-0.011421376202581685,-0.3227767905194357,0.277547304700468,-0.15046964453945139,0.3489902154925724,-0.26407610986394825,-0.3744154414119791,0.23269391537354253],[-0.24173476588357676,-0.3066249723143429,0.20548761105710145,0.027931549767257133,-0.16511110627684747,0.11668541954512865,-0.11178774150468629,-0.4172104622323603,0.19834735285695507,-0.07843365215200028,0.16914165876031936,0.013901738027227703,-0.17878371661008685,0.08039893548174282,-0.1501913348818731,0.1952088468674331,-0.1726605390255466,-0.5464648480764714,-0.1612792560989433,-0.3989429190428434,-0.24588508194078226,0.2755218051036049,0.05128974331628223,0.5421278004329605,-0.36569333618760586,-0.12471291684263423,-0.2529013364381242,0.35192962346902007,-0.22745222890425326,0.14614998243570732,-0.061669793914032274,0.3234997452212018,-0.17606770643456193,-0.3502794803103466],[0.041676507860839956,-0.263979748476523,-0.024125361120611047,-0.49826280150022784,0.20009528988695735,0.11204073899059055,-0.2748321655475448,-0.19643027048332692,0.05869716531707887,0.27609437624886174,-0.162735015777778,-0.33288930744060735,0.18635521213591255,-0.12727208882021412,0.09565587518384211,0.26340697242247035,-0.12350778593744202,0.2790234981761673,-0.30379165230495275,0.1309121184551001,-0.3482710819676078,0.13178906690175604,-0.3284205536606091,-0.029171353191668303,-0.23353395744797786,0.38951887611214653,0.00006902653778335932,0.10171456659472433,0.3756790015502669,-0.22337900580098094,-0.22576246434285283,-0.028184541715200205,-0.03700984412556322,0.0263962748960222],[0.3960719610644952,-0.4634216731596781,-0.43306815764491735,-0.4522058687948852,0.32761706926884937,-0.047426708819059346,-0.18136086499049597,-0.1674545314823508,0.33393628208761855,0.09000976406265689,0.2352442849087722,-0.1133601518439957,0.2753837163967049,0.1055578917622773,0.11848956470759385,0.09899990656271232,0.43309391308550443,-0.06881633854520564,-0.4023099898640482,0.26904109948032295,0.019400479046360882,0.20295888190209732,0.2569958473207541,0.14579361295103938,0.04017687296842812,-0.001169688760648227,-0.013700324800078004,0.26577618124896346,-0.2374647676477736,0.2410140429315163,-0.07150907105869328,-0.2001768895215272,0.4042024565490696,-0.20430831861967053],[0.28643871591966097,-0.48542301879745375,-0.2064797661202392,0.4002132894532647,0.2802722447023141,-0.2394388528236012,0.026081324622126045,-0.24938409226728733,-0.22322562684337016,-0.03896301644166451,0.03162871994956176,-0.18109049144219103,-0.23905773720303697,-0.36716634211755245,-0.18920306274691528,-0.16330660006975456,0.17755514044415596,0.05833817819515013,0.33475515660412136,-0.2439499660881702,0.011234547807629523,0.32641223110167183,-0.12134321376770002,0.06303369650797946,0.28193476913872034,-0.1413187856120705,0.028530141352470357,-0.23001139949055227,-0.3984044538149629,0.22702163187930197,-0.039214497616954086,0.22847338692718175,-0.11320204357003516,-0.2673027733561014],[0.23343502032405053,0.20715803255499238,0.41581413890742613,-0.11491654074228015,0.08507709256132548,0.3691298693786325,0.21996353830237733,0.4415159221202936,-0.24984389806601054,-0.0850994932241881,0.11359332907410138,0.46781255417362266,0.24056300460963878,-0.4187151500808354,-0.15979430869470282,-0.0485258369328487,-0.20564617399779445,0.000705115296690477,0.5065549962136511,0.37852591770252436,0.24636049177028563,0.395674010504833,-0.20710796050638416,-0.0653590516183999,0.19262687949225346,-0.14997350819287142,-0.3785184375471921,0.1803907292933474,0.040519175390317096,0.09010235262457654,-0.27350790090769284,-0.3096626720949335,0.42480925150649806,-0.20230969271737725],[-0.053586099483409796,0.3793766483578208,0.26906902331584426,-0.19043464438847485,0.22021294783336198,0.2043055039460236,-0.3500778012108387,0.26546509054375056,-0.06995044233803525,0.31730530569478654,0.02139195032714211,-0.01607461331263986,0.22158731211538585,0.21051847639813526,-0.3936993178041945,0.27793233672409756,-0.26807341113036676,-0.3468874044761853,0.038055085644113744,-0.1359038098671753,-0.3940625248469385,0.31926534149323244,-0.30046162018098677,-0.21674100292147264,0.2537053554966487,0.12667880987938906,-0.15654920973259898,-0.17481117206475977,0.39095385028841345,0.2124959862494181,-0.33514765676425784,0.14557335410129807,-0.04713584317209828,-0.1414893339977733],[-0.4125986151908109,-0.16262849437650845,-0.41594785469463724,-0.2414302715686444,0.15448585177475774,-0.06243690115516616,0.14154321213017498,0.42122785606332175,-0.009435692136811814,0.1240032835927039,0.08913690926835141,0.007226484091780731,0.25962464470669855,0.35053488119110576,-0.07779053852419311,0.07612799120400374,0.03756052984831344,0.30347703943315524,-0.09734586292014577,0.18974781559083456,0.3095300850142988,0.2734710003027536,0.022509370807106688,0.18061775003687566,0.0911317862824949,0.036535048867383,-0.07411937109104265,0.16149407591533,-0.02713974184512634,0.20468708078273576,0.32235606105027803,-0.4407928280998563,0.2407655738592754,0.10778471820862331],[0.3592537087600921,-0.20795523318309939,0.29090803483193517,-0.3442029146242913,-0.2916038980748126,0.3912973733720229,-0.20550912053169293,-0.28656901364503884,-0.3035884554256403,0.3553010138582206,-0.30569914844424995,-0.1047920440428372,-0.036313943059147494,-0.08906590009510455,0.16195056130817592,0.14942692185123946,-0.034170573435967376,0.3870463032831067,-0.13777124426978357,-0.2564177960946406,0.43798558926613324,0.2972775834273989,-0.06577549331439733,0.2617970281484695,0.2489830083640871,0.35532574410404066,0.17367817327663584,-0.5003324373140303,0.28074390516563497,0.038126696235322596,0.26604606533369896,-0.21207082358348722,0.3357233842953189,-0.07059402370405785],[-0.37818455057168304,0.20350533851089797,0.11243680376353654,0.029030819193011655,0.428051504888673,-0.036910072851462354,0.4420867633431629,0.20964316843255387,0.13371619923379185,-0.2943876905886789,-0.004007607253771098,0.23690958963847714,0.28763084597428623,-0.014146498537788613,-0.360895008751296,-0.231406230735927,0.3519105209741707,0.27329574653413075,0.26494864638918647,0.2749527980702786,0.3048081474767829,0.2674893325877319,0.11038612656024198,0.35160122830712554,0.15905265766138926,-0.46971787120673525,-0.30502078682999884,0.28030686922572223,-0.24762870591208747,0.30310664904231055,-0.35832550774370964,0.029754113816754375,-0.045507611382167315,-0.27888220521582185],[-0.2696864258646574,-0.10400468558203367,0.24506200737010572,0.2575847283175333,0.25547822342498855,-0.26270677940328463,0.07062811724118667,-0.13881666873575013,-0.05858272170454643,0.30903164832227653,0.09434844907468173,0.13565885812328368,-0.061162465760360864,-0.09542715921851588,0.3822432867360427,-0.43997584994295835,0.003141126906715676,-0.3082610959245614,0.13555070473828257,0.12333098662903,0.12551038516850238,-0.06638869533487649,-0.21395142847034915,0.22237886553449032,0.42575133367815543,0.5175791262785967,-0.10144022441333307,0.07992774425578077,0.1000828191500768,0.2797230323001055,0.3792595755642923,0.22556100299764165,-0.0042322959436799455,0.30538460911398635],[-0.3665223047993837,0.09427043711887191,0.20282152771823228,0.3731945858423224,-0.27871583575459574,-0.02838318383494547,-0.2284697593620516,0.04848273905774868,-0.17961477414399118,0.1262769271066555,0.2889540613977988,0.4065405672890536,0.4482976994149529,-0.3684279235455156,0.14048707217304093,0.13386141310705957,0.1620632029836195,-0.007637497065998949,-0.2628989777706125,0.16386061042846356,-0.4023081557259717,-0.4621613893702321,0.256921410755586,0.2898288368246453,-0.06338323543936435,0.12237965866010943,0.3743575381321366,0.0542093028138984,0.25932711265060476,0.3635282599963502,0.07763165306264008,-0.41686769478004854,-0.13548525984430343,0.141200349327757]]},{"inputs":[0,0,1,1,0,1,0,1,1,1,0,0,1,0,1,1,1,0,1,0,1,1,0,1,1,0,0,1,1,1,0,0,1,0],"outputs":[1,0,0,1,1,1,1,1,1,1,1,1,0,1,1,1,1,1],"biases":[-0.12353165831696225,0.3553429110950839,0.20953230189765834,-0.06373030780089353,-0.02814590433943967,0.18301897745395485,-0.13099689778464615,-0.38574895510334223,0.07775627270144517,0.0829971418429189,0.24270566318629247,0.22645301461926431,-0.08576996341076036,0.359803840926288,-0.24764626846358923,-0.18746822518969047,0.14997101288383669,-0.10962030681350782],"weights":[[0.22354318266621992,-0.08615341961724815,-0.3090826744049955,-0.24802759715998493,0.26828390437878863,-0.2366602942919025,0.014223501607672683,0.22255487108155061,-0.04160181759108171,0.27609130085596156,-0.06457449636806294,-0.21596014788894552,0.0266809851410822,-0.3577109845783526,0.356776176942994,0.1269930256744778,-0.0315249174968007,0.12127158412808581],[-0.05585662854589657,-0.06042810992842128,-0.23418328898346044,-0.360007844324465,-0.3382963726625321,0.13927194508178542,0.2600597575901466,0.41627494842975543,0.10264715684048878,0.22456276912935932,0.1266000989639956,0.12611767898878085,0.23342795286667012,-0.46072287862488404,-0.016471617836858677,0.2824686623815348,-0.022592404270707307,0.35983514632842645],[0.19268545045099805,0.4080607667234021,-0.16725380372539192,0.3674262908748699,-0.032805235732705204,-0.32172749221004443,-0.31404545682372226,0.32200708839214676,0.07778603788187755,0.39602502727200767,-0.16403998284287769,-0.3317634288559148,0.2351930550634449,0.22974123848114564,-0.26579229120789166,-0.10724601555127762,0.2453439616300563,0.03203694621286431],[0.00807917894228814,-0.3437766442221512,0.3499019815684842,-0.08008909594696714,0.05764336793059259,-0.007959023517926357,-0.17675219766032962,0.1596757311849823,0.09184951063419053,0.17165681449728634,0.2945085784176948,0.11844116100163446,-0.27154734659096025,-0.4727684405715036,0.43264396254808185,0.3744824117866812,0.1768355528274233,0.3523167259676825],[-0.38903812840039165,0.3308667281910227,-0.013553431174957345,-0.2727189635264461,-0.32709260600131745,0.004231872276983434,0.34492218608892805,-0.16989269938761614,-0.26295389625153776,-0.27865903318182766,-0.2866131486605268,-0.016801569709871074,0.4298545369142376,-0.03234131763276254,-0.11186965213259814,0.05350384343846985,0.20338020453002187,-0.30362704266697654],[-0.4135947010515946,0.22217715028582588,-0.21780492277651473,-0.023329928532023918,0.04953069811639484,-0.44717794931864313,-0.2368832991052885,0.2571038097315328,0.26861776562129286,0.20059394568768812,0.3734058965167893,-0.04965047269973935,0.31700004576867585,-0.033242420840829595,0.0757796825712605,0.3176303080964857,0.10905331278944586,-0.0966390431099584],[0.20465194602958595,0.03402559221640742,-0.13095625391617916,-0.019900508844314997,0.20512954548241172,-0.05998439402611852,0.2161119901663134,0.34056457963348263,-0.22747821832383758,-0.1399623854671819,-0.4359480843409986,-0.30797596929551585,0.018290004373702835,0.1327921127735338,-0.03378747713881009,0.10524521253914265,-0.1343250454461248,-0.2855458503405973],[0.07467822504208692,-0.019271964052502182,0.00651235814295097,-0.1837236495730165,-0.11875811451295165,0.2538358662428922,0.13671432529743335,0.30111984861837426,-0.20116644698114045,0.3060238052378555,0.2909513699993854,0.2121452044933002,0.1969628028425,0.3043660212533415,0.231156515909048,-0.26397431844951696,0.2521367893585368,0.0372236334261682],[0.3081509314736113,0.10708030359871894,0.09540340350092201,0.3230392590979825,-0.22449237459171506,0.3208673312010061,-0.16747366298232047,-0.16861140820115214,0.16885912403917921,0.15747395977488066,0.10706370735836115,-0.2334511686082367,-0.23914220779806467,0.23960636829573378,-0.07967494464321666,0.2550320266390985,-0.08032890802510173,-0.3929219837218951],[-0.14661500590176008,0.1434371436383901,-0.31176854851311325,0.4381783055572282,-0.07984107240481812,0.13282011149305764,-0.05916909746409648,-0.06672398627354457,0.18217794967884807,-0.295193155541866,0.3543606814391544,0.025713278137269195,0.004757087143314784,-0.10669254201259795,-0.10934689299353581,-0.3179761357009756,0.03693076922706366,0.13547077813374697],[-0.35534039955882674,-0.23031590227310486,-0.28831905463197954,0.1957184315086128,0.3539831712537567,0.11078839899808533,0.4040365353476415,-0.3085757407217828,-0.3238736681120224,-0.21634363498995005,0.06438960140174357,0.35368086648468544,0.3508130298565936,-0.2792783626699024,-0.31087787382461873,-0.1136828498290797,0.06983327456941352,-0.2150965806273164],[-0.13996394085846123,0.24471119872854002,0.2243093026709969,0.13699264616311888,0.11472817781917427,0.46240021634834105,0.35518606446584855,0.20630946248228496,0.1475814239843306,-0.31249836321098917,-0.346621107517402,-0.13238797006800387,-0.10223299655377699,-0.24592345027773665,-0.3240814280427963,-0.20507522668373174,-0.17164172905530606,0.19240619141737028],[-0.19229238058336262,-0.13552122105893127,0.06518205112346494,-0.5189489364131243,0.31111219599932555,-0.5807442055186023,0.30439696440928055,-0.2659305538554079,0.031133648108344757,-0.26941665341641785,0.14828773283888635,-0.23592793645243088,-0.0010779540488861736,-0.13673413214991442,0.4563053261695783,-0.3061049499009401,0.25575643390100555,-0.08651661041932848],[0.020671845716539676,-0.3519924253623299,0.18636690038763026,0.013706490282410902,-0.17439879343504536,0.025353146578010084,0.2339764836953745,-0.1370881868416664,-0.19299045574389267,0.21933999767427811,-0.2544411228698335,0.16809813801166082,0.2828947571220408,-0.2742173298469653,-0.33023829446022795,0.32456468241887404,0.15693508476477383,0.0436064194843868],[-0.2890690768119694,-0.06290208202848749,-0.33367569482565473,0.3002974873884315,-0.11188055116034394,-0.17571279769091208,0.18260172835388622,-0.06343588544361956,0.2652075373573324,0.3006870441324067,-0.018800835437425632,-0.05472275398997088,-0.19970382459083333,0.35649142214604485,-0.2637529554152984,-0.3853301244509274,0.3515015953466072,0.4255692016014974],[-0.23134174610036146,0.022991489972754225,-0.4694343027625427,-0.10453400524245503,0.1267343002763979,0.54977301433349,0.16206630943888325,-0.043927357440518074,0.08697992161061141,-0.030245205446323635,-0.07235893104304926,0.19437762641149936,0.06615057910407673,-0.2418767520092962,-0.1196210321996518,0.17777134263937933,-0.3102724927893548,-0.002169369268367083],[0.3027654900761799,0.30609460243158626,-0.2692625903115037,-0.06706940917364243,0.019123034500502355,-0.11015193683251645,0.2195505324600728,-0.03830593690907089,-0.2725197643409476,0.19425277841809233,0.3722709784235258,0.21750414293843356,-0.35685023768900553,0.367689470245975,-0.20087000306151837,-0.1330376927945202,0.23972370743773538,-0.3346033758557163],[-0.38486270060111416,-0.2839458865196357,0.2679302792112855,0.15315350774056893,0.010367882957166737,-0.1876943991299653,0.04912873229886255,-0.3203804325059956,0.027420898758911315,-0.24766950368679738,0.1309483298806524,-0.08724736963153762,0.21047139589765396,-0.26558984646673045,0.26802125806988475,-0.31882641710303883,0.19356923727090425,0.0165413196455398],[0.46659266529339005,-0.1876651194890901,-0.3886402606530983,0.08729527028153615,0.3316928632388153,-0.05802509424225652,-0.026083994387532155,0.34375669984039314,0.44591937894054196,-0.13580909930143317,-0.13796382264502816,-0.025257013273904765,-0.14447297354841326,0.3372885734190949,0.28218951577732654,0.5228922578343719,0.3919528738779239,-0.35395618283931485],[-0.0829373089553052,-0.44359708901640565,0.1384812343948235,0.06955616948793344,-0.2447967092041799,-0.37723843633017096,-0.08883010761593149,-0.270963070292582,0.3370665691722213,-0.01668010798407291,-0.4440509897827908,-0.26755337735670454,-0.3392462248579264,0.1947384318183763,0.02631109940760989,-0.19578018828719831,0.07139087874681588,-0.37257819844989104],[0.031789170369472985,-0.1832679981067608,-0.32684435496205655,0.170340817834998,-0.013169484798486997,0.3791929288607261,0.12113245738261151,-0.00006926388131642952,-0.2338721647259309,0.08429539569272064,0.06580770939024208,0.13914784011390957,-0.5247282880361415,0.28748134114895485,-0.34304553912075014,0.03968403175435908,0.13776948601297798,0.2573762834522304],[-0.18833367565629888,-0.15649161276205953,0.2813908386855976,0.3078524901801539,-0.2829224034964382,0.2425080014371423,-0.07668614962733614,-0.08607479641132247,0.12906831786103798,0.012805522691284228,-0.38177043897791046,-0.09174159797726023,-0.18855680316139833,-0.22434417853876482,0.21539099141247536,0.04286726072112919,0.16869272134327182,0.16088247686328067],[-0.007167386577567041,0.02412694680834459,-0.3707897026203443,0.47408452846396515,-0.0058062127633427725,0.06954999437503079,0.294407383318836,0.12764930635586721,0.17602134145524956,0.14599604566445448,-0.4127994126557195,-0.3665947902426864,-0.11726360768543828,0.4390047869843458,-0.16743431433239914,-0.03478513271647263,-0.11471157896340983,-0.14252287076322767],[-0.14932578073189018,0.025797103595780725,0.2565022986558185,-0.06634385069879839,0.304522468834266,0.0671431425242046,0.05698681624827256,0.44593438357704124,0.20803327372641064,-0.49882173233110033,-0.4550432460899428,-0.13529888434789167,-0.23543238645279208,0.24434997569864583,0.031358156748052174,0.3471562642186651,-0.5184271785540052,0.15919609015635922],[0.2934484457167837,0.1236371325328528,-0.17454163473647516,0.09453491951955528,-0.10175486675300947,-0.4625990306408008,-0.19187563857017442,-0.10873773138745693,-0.27093538417385304,0.05827898075846384,0.16262519430654032,0.6023898930426592,0.06839056101668438,0.022475943113270967,0.22848418836359904,0.40101092903742785,-0.17605270269442672,-0.3274757130035345],[0.24338734810733298,-0.30783971530712223,-0.012554128572729327,0.28510108861296457,-0.24269895297823255,-0.5355817978718975,-0.06972387249318043,0.24676722489320252,-0.16147696633083325,0.39748410819074054,-0.18874661826699735,-0.13287161828680918,0.23084203255175734,0.08914117983207802,0.26383749741680124,0.056278440253616877,0.451668144649582,0.11472401984354307],[0.26426638127839197,-0.01957615740031919,0.16976568431224365,-0.09114307301075775,-0.07532100176966977,-0.1557174365445844,0.1906999084895836,-0.32366128726916504,0.14934302029787933,-0.2439058596241229,0.28604210659678,-0.16485476209600633,0.12759261622103998,0.42783675470922866,-0.16391188373997412,-0.3322750489597456,0.29872763431434457,-0.3457059731048915],[-0.24326897293713598,-0.10198592061471604,-0.16690133995851597,-0.4750537560948116,-0.1780575232424776,0.40905727955327065,-0.16865825685886532,0.21807099536125252,-0.05336925094373503,-0.05745739218382091,0.20758921593143187,-0.15783562885837676,0.25132727793511483,-0.027488573022896284,-0.18207242936269244,-0.1471816763515926,0.3202623437298098,-0.16427968509714136],[0.5161874500415413,0.3520551287661174,-0.2988911908207531,0.24391721239508776,-0.06213389703612515,0.023533523807463822,0.3020771110067919,-0.19128306142102883,0.4014731334185748,-0.28572844328927044,0.17543475277166637,0.21848100128529563,0.28504155655156765,-0.12757000153286796,-0.23564971140874388,0.2654848421190952,0.002476822531966613,-0.015191231465621218],[0.24012797120825666,-0.3265514503469552,0.39174753586653843,0.014167832113404277,0.25854636601664793,0.31837405612652353,0.21019699386448215,-0.16728347941483537,0.3096668353758168,-0.08455751760410238,0.18982462966791733,0.3223136783615927,-0.20195594570759284,-0.008066065143139144,-0.15901009960899495,0.3423666604191916,0.45236661759318303,0.20280030992616238],[0.07947751576846127,-0.4324057381976639,0.0430022840271987,-0.3707606663807917,0.20911421063961885,0.0419098605873509,-0.09725225150724573,-0.15939771239419806,0.21921756138628143,-0.030770994222066826,-0.349644219879864,0.10956829669352236,0.25161607740153913,0.0709243140213659,0.3234463288688886,0.3040273654492841,0.010783186237130562,-0.510447203959875],[0.040744231101863385,-0.13820190222100914,0.3196483296497175,0.1441048084168592,0.29500359016868427,0.05867418702986079,0.06925147067994253,0.16989371247753365,0.19787117983982944,0.08172075873713497,0.29707901122296304,-0.1253728895524092,0.2489157103227951,0.05182120612101836,0.07093683029997308,-0.1570154777961181,-0.07711335357060425,-0.27713605983951395],[0.03465103471224569,-0.008901167599915938,0.11530350039133455,0.0976067045682254,-0.0524124381663653,-0.3274283676895957,0.20614346199971964,-0.19070591154389818,-0.03750496030862967,0.23937814207680633,0.31593684649175885,-0.031392540506560734,-0.0712851584517956,-0.26741242348447025,-0.14899060700802924,0.1325586774627615,0.2994622886231547,0.027544754711425635],[-0.4202651367755736,0.3695735086018379,-0.34282738711647365,0.04431862636235591,0.11770184694517252,-0.10019377025894885,0.18148187503203586,-0.28971884581550583,0.18005139610692716,-0.01639877698520867,-0.14323312552279682,-0.10704058350235367,0.16030466648317407,0.2601144743905182,-0.3654434607720527,-0.16184912011407748,-0.22959014082826562,0.13492795469421068]]},{"inputs":[1,0,0,1,1,1,1,1,1,1,1,1,0,1,1,1,1,1],"outputs":[1,1,1,0],"biases":[0.0863174871958684,0.1764185678724561,0.3030052332446985,-0.02922526366153676],"weights":[[0.21056389975638753,-0.34791128283976575,0.12817228273421621,-0.33043019135716445],[0.2965236319257364,0.44367448331106585,-0.2350300931566309,0.12003090222868273],[0.2509322609771613,-0.014671940498462446,-0.30975608807987787,-0.12351065083893406],[-0.2148386814222325,0.1640827998003987,0.4338929067144622,-0.13324708984519743],[-0.26975960398495785,-0.27200880579096276,-0.22304107666153333,-0.14612517197002917],[0.38146388565834227,0.07857722395107175,-0.18781424768527502,0.4361398493500394],[-0.11503118235263646,-0.013432959103123664,-0.12983851280571157,0.06988854220658536],[0.12022313829471987,0.27715927267751383,0.26543406348320736,-0.4382658855100517],[-0.0006113504290220576,0.10170158971026473,-0.3532052741134024,0.10002092230660029],[0.2685822799170621,0.46729369410502386,0.42655241667149413,-0.03097956711282693],[-0.08394336107507576,-0.2014079648393343,-0.30035767860548795,-0.5137353025439978],[0.2441473252141495,0.09006784375790676,-0.15474717004102537,0.15349029909156667],[0.015988216665140713,0.4208888098342733,0.06497139921781697,-0.23429170231737112],[-0.027405016421495364,0.07532153610735429,0.09207147011224337,-0.3152804557822025],[-0.02997563186990915,-0.2725746851255259,0.3539788415746442,0.43327587824706604],[0.4753903880932563,0.05408307353062412,0.21790405202150873,-0.18598545954193993],[0.1137709553150541,-0.06550669943333372,0.2559108007272689,0.15611334589093778],[0.21273070315366283,0.17028566435008183,0.1913171472874739,0.05499099512647648]]}]}