{"layers":[{"inputs":[0.6493321944145096,0.6357142849660357,0.605211480782873,0.5502714610374286,0.45315601352210455,0.26659963400258124,0,0.5910696431599319,0,0.12044179118976861,0.46251827777908416,0.6020095790175497,0.6740717019173116,0.7147574271737006,0.7374426100850604,0.7478077139780628,0.7480717448622838],"outputs":[0,0,1,0,1,0,0,1,0,0,0,0,0,0,1,1,1,0,1,0,0],"biases":[0.08599838437899043,0.04884430899631787,-0.02954507896118478,-0.05151901817272256,-0.10249264092573307,0.06268739017346181,0.1193858783753439,0.035672534962452276,0.06514126831936334,0.11202408684116515,-0.01764044497060525,0.04718308448473221,0.07971447264824724,-0.1104179036136922,0.0012803000903586492,0.1527575625361666,-0.1269481585493733,0.1278641689015806,-0.061268665038717106,0.07486503601600733,0.050346966826100695],"weights":[[-0.0307272277283794,-0.003345351473278642,0.14845209083291636,-0.09544836682735491,-0.052242556677019214,-0.08866901573369387,-0.12322594265546352,-0.061696567245049634,0.00903708617846608,0.0014650796892543266,-0.21716696536998598,-0.09530462312635586,0.07101530238152363,-0.2513651985963126,0.027384897012836824,0.020719711227253544,0.06184649012780213,-0.13092676662134886,-0.08955108858965763,-0.03555037652391904,-0.028065105888470155],[0.036464757750137085,0.04332063236646044,-0.10403169914551974,0.016852187113727782,-0.028105215394888534,0.10272635837156674,-0.03902581312123122,0.06767967422540147,-0.11549493202985536,-0.0797927146813117,0.08641813984775776,-0.12788844866942395,-0.028090452518352134,-0.05301668523149623,0.0102667691353001,0.08490366681722045,-0.0753787620649493,-0.05095205780640409,0.05198072732166236,-0.060752697213435146,0.04813878078600473],[0.045100626828442326,-0.08751166028666277,0.015244983865852393,0.018530875326817367,-0.02638129929254667,-0.14800925148225086,0.00019375419110972264,0.0055002271269947904,0.07774671958919382,-0.19883343401400433,-0.03448942247210039,-0.12069590835013645,0.07808424620095306,-0.09690677711195109,-0.11029658352508612,0.006518448294600895,-0.00331448819441367,0.10595189829417123,-0.04362492291106138,-0.10901440899015295,0.09649598168436846],[0.06350020343643706,0.010930217184186596,-0.04781370130126541,-0.07271159488130771,0.022149454645981316,0.0037435078743570244,-0.06782538688621144,0.03539025711863105,0.018272084774067353,0.03813352788199894,0.10825208263362526,-0.03256984708304529,0.011226207517078162,-0.04677307622058827,-0.08571270544983078,0.040297172042018915,0.10991367238367507,0.11411686342908847,0.14215953811746773,0.08778201567530747,-0.10123696380199884],[0.07847599069395421,-0.008548629384060688,-0.05165021120012474,-0.21776805173369224,-0.07873003585812953,0.02738463561827563,0.06261790651395727,-0.05561939683607113,-0.12091556678550311,0.04018485376894233,-0.08611655015072155,-0.012025392967240103,-0.02671651945334903,-0.032807653863704225,0.06562739276965175,-0.014050308081308898,0.010842893148820101,-0.05057066486470212,-0.049340274313744506,0.015619764397837316,-0.08910719549373519],[-0.03321558633310673,-0.1562674689182783,-0.007538118037075468,0.04428454127102242,0.08471860822667943,0.06449078599078983,0.06248145578987901,0.08415127937095672,-0.02411892252397195,0.09136129263597412,-0.07455034776802016,0.17254781727012694,-0.16671561118533992,-0.06314969830662842,-0.025187321425398097,0.26768374953184293,0.015809023748993793,-0.057403939710810405,-0.06650638581392958,-0.17073565776209973,-0.031830741617019626],[0.10875818254324392,0.04984609413561197,0.10022345909377149,0.06211731474648949,0.05062485745996195,0.10710818640576084,-0.005894582063889186,-0.04148544686032921,-0.060668314913278364,0.023966026298518413,-0.11641442430156185,-0.02081039123221715,0.04642263672260203,-0.026863534734401964,-0.22878228870091785,0.17932590663308975,-0.07908300255979558,0.008866622998183287,0.0833062283761038,-0.0369990068419129,-0.05414700905734473],[-0.04174965186329253,0.023946842164800485,0.06092924762604286,-0.003729370337698275,-0.12130230153431933,-0.08843834175986179,-0.05493952984266468,0.08699700099484428,-0.09036838740561638,-0.005979881814030063,-0.025963202900279057,0.21225495811002817,0.05601974658789983,-0.18650584239909898,0.2374698338775637,0.10371798217239568,0.12563958408816958,-0.1898660031972603,0.2666295205646537,-0.027158028454724627,-0.07246709908577652],[0.2678165089651945,0.07035645615826597,0.0659318987240328,0.06607351233430261,-0.046432718045285176,0.184566961621998,-0.18038594100965472,-0.015856231259158853,-0.040300705790923715,0.01554111924872539,0.018261956125689614,0.066294808253677,-0.0314435752381797,0.02162785294406215,-0.2270692550528842,0.01847244907419185,-0.011808167793699805,0.10344986022896001,0.05081463410215552,-0.08543631612974532,-0.0971390035684486],[-0.06951638798369805,-0.15145473263408787,-0.21945716772792612,-0.11984906743400559,-0.02915556336657644,0.11084502862937574,0.07220349201935039,0.06282900758012644,0.12329642877786914,-0.10978726655570695,-0.15801813298135073,0.2128717358392153,0.14362679231523495,-0.15825877946123063,0.0053924915894760644,-0.08395960829728213,0.01865852013712084,0.06646262730487865,-0.09004754017128798,-0.10339777041043881,0.026016156841108994],[-0.055406670102352715,0.012631382812715372,-0.0636284215551827,-0.054607700685387936,0.02584781829106031,-0.0820519484013536,-0.09626371168007503,0.035482742363949424,0.009182581283570267,0.030191070987829218,-0.003991596254401167,-0.09387062110415219,0.04046805891611604,-0.05199173958368034,0.012615840733869673,-0.0017025657762156782,-0.18622349187467135,0.011967550997189123,-0.01021938831094242,-0.16371595813577766,-0.030858309042551105],[0.01160655549857871,0.08125746494163387,-0.03140243187144007,-0.04274142370493263,-0.07997852069589625,0.005543711980482799,0.14625148626767123,0.025897263627053968,-0.010911497738907844,-0.06549171050492585,-0.016536550523258794,0.03004987548660775,-0.15244403654167119,-0.048664307427427514,0.029325975341009183,0.22214082453773168,0.0475521633090835,-0.17721134648974773,-0.038747277064585056,-0.0238137522045812,0.08007907552826399],[0.06502889892943813,-0.03792199542337753,0.009898427230590909,0.09477756846950632,0.02269207679501386,0.011703376982836786,-0.08498028858951881,0.057195278154729384,0.16026681403083287,-0.06152861414861606,-0.026985694208730975,0.019656680380609443,-0.08795203653711872,-0.08519851335527372,0.07950623406135038,0.05604201509130521,0.05786689027639213,-0.10177397232444313,0.2432839421206414,-0.07448095350035058,-0.09974242035266495],[-0.07620727634991029,-0.17991441896778293,0.15669915934095835,-0.10079377385396074,-0.04074511288107475,0.08716896943985253,-0.1420478628589278,-0.01129728048978993,0.011229730834874201,0.05229000134472885,0.07341527559750988,0.0346863933064253,-0.054749069170589984,0.018531289742126707,-0.08531001320028553,0.0276242081345952,0.04428664446640193,-0.12834186743171463,-0.007840588158770912,0.03977262841538096,0.0029773780097240646],[0.16477625507428187,0.019679898559190306,-0.12120995605221613,-0.06495446417275545,0.11763193347544988,-0.08391912222271464,-0.2213802985191114,-0.01502716267649997,0.05187693154695319,-0.02624689230015318,-0.010324786919021806,-0.19573298272994066,0.07425930910550552,0.0874913744032379,0.030142599249859604,0.05570974028691833,-0.03117799870405408,0.09037651167494211,-0.10675941782449683,-0.028897279857770138,-0.08247683412798223],[-0.15084981434806247,-0.10144597795953358,-0.14814416720758297,-0.03821119277850712,-0.0062868398896853625,0.10947172499574975,0.07516074412874589,0.0038089962406100616,0.030031878450941338,0.02579352651892445,0.004361029816884583,-0.06769778404411586,0.05447460718143362,-0.10254244498382625,0.0009507647747527617,0.21486284473856837,0.05091695962302708,-0.0928905685663573,-0.00103924706310686,0.03765041677595645,0.0017232758606587281],[-0.1667746798949008,0.06386616307309717,0.22524874537483608,-0.014084525861025238,0.0539217188373139,0.0763834890599421,0.16404217554130235,-0.09261023494288484,-0.06073952820721413,0.007597872300756711,-0.08474886562852968,-0.03533995462740329,-0.04573055361044913,0.07442221971179112,-0.022019251195716637,0.08101584768900837,-0.011159533750718799,0.13672141450718178,-0.033559110235591535,-0.05547612330224171,0.007594429297536641]]},{"inputs":[0,0,1,0,1,0,0,1,0,0,0,0,0,0,1,1,1,0,1,0,0],"outputs":[0,1,1,0,0,1],"biases":[0.08320300885825604,0.006391522738874202,-0.06956345457116885,-0.03746878826912042,-0.18392620404263774,0.02367835306274308],"weights":[[0.11443659510444668,0.14223960037709343,0.0732046394540472,-0.003012577260162628,-0.039060133920442996,-0.03464657212092339],[0.0018623471637794556,-0.25949524241151845,0.07043613216696039,0.11809689012531482,-0.02760454320943274,-0.01802694313537461],[-0.09829981893051998,-0.03847338840189756,-0.07101420922637605,0.003478629757936131,-0.03512490009048834,0.03273574559960909],[-0.05634539790355456,-0.19644908675193973,0.03938848085066,0.055939964688814986,-0.04465659867170111,-0.053836080355368146],[-0.09202244344874055,0.017675849782900464,-0.19179724854911953,0.04760695203629782,-0.10160917904750588,0.00646849287040414],[-0.05955658804128363,0.05000784872334332,-0.03791424992287935,0.05885842246778793,-0.11356262055980687,-0.09543981481397895],[0.06988727426756965,0.10017666986324013,-0.023739852902707644,0.04690748320700014,0.03904387033769192,-0.07074348893768505],[-0.03877559095983965,0.06953072869988237,0.05086407687362553,-0.026614174476825396,-0.05121309078083242,-0.1489360487797853],[0.04037944363115137,0.07606437199210273,-0.004801701942845031,0.014646111454860961,0.12280596645606101,-0.11737881055557976],[0.08882512374323223,-0.0650845247351842,-0.002461207059898017,0.06341311379740182,0.023907276071444983,0.0294282627817697],[-0.10682195302502301,0.0640813907210486,0.17412770503563857,-0.033761521503376704,-0.1801665837357793,0.03014354777823311],[-0.06543020481956327,-0.058769397605640705,0.07273055640728791,0.0176010387586341,-0.03350958276413355,0.10865108400640001],[-0.09360145559975844,0.13052059521053036,0.046129642844990035,0.09883802950447622,0.09353814831653134,0.12136892603258603],[-0.07075484570817653,-0.0416024047589059,-0.05275465803671303,-0.015356525172147688,0.11283933777462657,0.04433779865494583],[0.0637015820161177,0.22707730252754152,0.21069345442802662,-0.014011125853018893,-0.11604490002948864,0.06698341851351808],[-0.01932068532323749,0.08159233061392601,-0.05404738010877745,-0.021333725288465,0.055735757200086986,-0.008149105590366837],[0.036577727839282405,0.01834412972223089,-0.009719172970919468,-0.2146261399219177,0.01531559865010974,0.1039055671776624],[0.24545149463025667,0.014606432430121503,-0.21421545362678482,-0.07394207462973987,-0.07609881856314876,-0.07791454164955906],[-0.10667281482716591,0.05609497032946972,0.07753266953166062,-0.00018827960786543807,-0.01724307438727564,0.04189305938755716],[0.12275862068024547,0.013779049285334423,-0.012195819484450504,0.024723678788730684,-0.016714967966406025,-0.2365005345306735],[0.007795618906573362,-0.07759422572380584,-0.005849454071703737,-0.06752286435626202,0.1788610011547378,-0.0444381424403783]]},{"inputs":[0,1,1,0,0,1],"outputs":[1,1,1,0],"biases":[-0.0833435583726021,0.12506713692049706,-0.08236964396495167,0.13901669664632804],"weights":[[0.09144890649703294,-0.10584327978724008,0.03135410795577947,0.06485109584593292],[0.07208505284400149,0.09456041949251263,-0.04267998318994447,-0.0632789819829076],[-0.042801747938203474,0.15243578103740274,0.0484478408437967,-0.018304122860778232],[-0.05154042623336274,0.16203162171863478,0.042159848323815106,-0.09632444950918179],[0.06550177375895358,0.11658179124218174,-0.19358586490779095,-0.05420713259036341],[0.053244196380516126,-0.05594420327605138,0.04585327767103877,-0.056324128492416234]]}]}