{"layers":[{"inputs":[0.8702290862677573,0.8678007379149515,0.8597887863243081,0.8443767022845406,0.8172684986549643,0.4996697465004628,0.2764930073846077,0,0,0,0.3317239176848502,0.4198305609876478,0.545149566774326,0.613739638303759,0.652758330638836,0.6732111060572332,0.6797666839662383],"outputs":[0,1,1,0,0,0,1,0,0,0,0,0,1,1,1,0,0,1,0,0,1],"biases":[0.05557349325278467,0.12255517422542223,0.0034023414736752064,0.12204970660724168,0.132056845871769,0.06506383578238968,-0.055752311485769694,-0.01916339135058283,0.09539186313282498,0.044734661777992644,0.02719348866368059,0.03454989564902846,0.040542826173691295,0.06885025092010377,0.0184645283126397,0.16291394581262902,-0.004921548073303722,0.13933269542054508,-0.033785587005898926,0.060075224697859586,0.013438464580708694],"weights":[[0.024292084044791412,0.07083352825487746,0.026564173856369062,0.10874014016509681,-0.06345631057971161,-0.017626014364570022,-0.07255897469377595,-0.029700457465171175,-0.12271457901691679,0.014670274032386812,-0.16574589935108122,-0.027794956245023955,0.01240904903104219,-0.013144679454602182,0.05705796489673083,0.08113105279755553,0.045113024576431945,-0.1333100243742102,-0.15823092777214298,-0.09060388737771327,0.03489155669471009],[-0.06119728935492818,0.0954824171220539,-0.022480216141905103,-0.09215840429744879,-0.00453770617460305,0.13738681146356466,0.06801445484862649,0.08506644590733016,0.2338282552831726,-0.04524786575017743,0.015299321254285129,-0.011810385393168643,-0.0051693240454263635,-0.006933623446478642,0.09249194085644666,-0.20558770712200225,0.004141565937261553,0.04432447192564663,-0.12624036126788063,0.061147944659506945,0.05133930556903692],[0.05213347197887104,-0.1414460278119219,-0.293326974980008,-0.10861694550795459,0.09396415548655429,-0.12413965432771558,-0.018251200022774243,-0.007058172696048297,-0.08857987205116208,-0.07015892287871688,-0.10427216721474433,0.06165244632304717,0.11394139996172473,0.024669796691348507,0.0656728312552327,-0.14221319953105285,-0.028886056181458876,0.046032590517926825,-0.11360268597316875,0.06107065845889699,-0.06692209243297369],[-0.16301022092729103,0.0640904925586563,0.06864693556645494,0.00032267867711820164,-0.10953863290947367,-0.12329490572985385,0.1352172292941381,0.030699207524856238,0.009928835220339147,-0.14950118163108833,-0.19017154043226392,-0.0029161646345997744,0.13679228006216623,-0.08826919858413389,-0.005359763428491336,-0.09956521136877709,0.004245416415636735,-0.010900147807300852,-0.1793827212308339,-0.05594507262183525,0.19750799609163144],[-0.08551527730014971,0.11110455834394002,-0.02954087975229007,-0.06029808261565968,0.03603806186892987,-0.12985609768387524,-0.015602923920306315,-0.059510041564747505,-0.13666803202028743,0.017564160856285614,-0.11125038946580937,-0.02358778490330442,0.12728295759050698,0.03874347269678794,-0.005604454666337716,0.030709466156090794,-0.1191013444862009,0.146035558052369,0.10389435709888548,-0.18844776557196163,0.07247467424279963],[-0.056505096729790226,0.0444235195823312,0.05763876966393802,0.07672545983931042,-0.054171555978593765,0.25643534295871506,0.0024307451152340495,0.06316343088838734,-0.011180054082020614,0.06271404003328207,0.1427983000231597,0.03892517259036399,0.06471557836699635,0.21759874229016238,-0.02753312035149071,-0.14548234108501729,0.1404679397505764,0.08409935710971025,-0.05713833840661411,-0.022410111078235047,0.18110582754528295],[0.21775697274606728,0.05451561526680037,0.029791893802275933,-0.0758345100854526,-0.053817388517375775,-0.06174001415424686,0.10809006456368932,0.06868130363692714,-0.0376969352105269,0.0319571624590658,-0.04209532729223635,0.12392613413865952,0.1530301618229383,0.031467899905824076,0.10323024850734083,-0.04993706015613444,0.08782109339062893,0.0436430082060424,0.059310180741468,0.056300551125464574,-0.1234473486637909],[-0.04985554851686885,0.11117897755777686,-0.14302124017013618,0.12086689517609156,-0.11963056935005487,-0.020090242653731036,0.07337524745096229,0.05527984041375604,0.0025349944068808056,-0.0304623815260856,-0.08600700293414155,0.11132907816428927,-0.13976621844579626,0.08406851058788951,-0.06087522551293342,0.008150088463139693,0.07980954280884722,-0.02274219311792249,-0.013292435967150504,0.10943348152331667,0.03516607928381875],[0.04137464846327524,-0.09519761369415244,0.12221693527804686,-0.08235076155292215,-0.13141101891619275,0.10865486377680544,0.11706007536421584,0.04593110060355442,0.04191476769655307,-0.13097155531130125,0.18138453055967663,-0.03471096250312772,-0.03952345514808129,-0.15401289331329707,0.005470969074765773,0.031645504156951734,-0.12701323101699274,0.0867381171734574,0.08428522586635429,0.006362861322110384,-0.10178088983635365],[0.006662160463220004,-0.028405122492391237,-0.006052821234852998,0.14361555992809913,-0.0496832945704851,0.01841540762294109,-0.034186609342169,-0.14649468388613124,-0.1229675808069102,-0.10853279171029494,0.09628837815445532,-0.019001629277433877,-0.013140347614419765,-0.060891396164934004,0.18300570665365987,-0.050230615533860004,0.0211696482143686,-0.048066081010626815,0.08290003011211448,0.17383158800577803,-0.043317098489520936],[-0.1339298730729412,0.014819029108797517,0.08472096111759429,-0.0991319182497154,0.0691495192309591,0.016967002762809696,-0.019860394710651326,0.06313856701996559,0.07499959785819074,0.050973315194288694,-0.031228202233042186,-0.028293624783662145,-0.06948997278510988,-0.055520230247808694,-0.03556353279242807,0.039715239262850976,-0.12810713788869,-0.0450519133052991,0.05345100987330061,0.05352122195746234,-0.00560541937179905],[-0.04908994672544375,-0.02361885905977012,0.055698363492166385,-0.07578830548192096,0.13104860708314714,0.009737371506569219,-0.07078279259052339,0.0227876410504963,0.003871366707081783,0.06534198261580781,-0.11503084244711231,0.06729161959282866,-0.16846982613146266,0.18251757982163747,0.1974039096498854,0.0034320770867517086,-0.16257192020575875,0.24620344930814095,-0.0625751854657551,-0.12838507051362544,-0.019769443628126243],[0.23566670082290167,-0.07835549635789828,-0.09681532115109162,-0.012680348511216626,0.024727776053470072,0.08167559465041539,-0.12900945990673876,-0.1710101712142646,-0.19216890711444468,-0.1825693339378456,0.17333934757747216,-0.12513262188767,0.011118305259500388,0.1279359507777814,-0.08519209056833305,-0.048187467989181276,0.009577877725434204,0.08228606228482867,-0.008395383658873483,-0.1616070644687555,-0.009618735617065957],[0.065865272229227,0.07608546475823058,0.199104235056795,0.005342722299875537,-0.031089284982720962,0.022193561301332695,0.014331948672050756,0.05532417426016378,-0.10062407530679335,0.034326115903250104,-0.10023674437551387,0.07165506150058033,-0.045162369117278396,0.03086838829138061,0.09208347357370279,0.12048001976637505,0.039113988168324565,-0.0042142922310021876,0.011961918591569132,0.03012716788033986,-0.048108839242556774],[-0.11675448456793897,-0.12164799677802468,0.062068245783127265,-0.08051126549728371,-0.022109305028599924,-0.06104808658844467,0.0252391825640011,-0.08191781152393135,-0.004071150247850458,-0.08228302107879709,-0.029544366215663594,-0.1385683141129375,-0.08830266761717254,0.01934238092944271,-0.12482155147395935,0.06906381942376955,0.055578665048640334,0.06328295258328537,0.02538802604118523,-0.040334713564525,0.10862950196654146],[0.07907684632820336,0.058646983999257926,0.03454043012870784,0.1239253027594662,0.13596863648340157,-0.007938002847969028,-0.03311254003147276,0.06425643532536676,-0.062357508092324834,0.02126203662464868,-0.10098527322980891,-0.06199377356494919,-0.06103380729399675,-0.004553066710904198,0.06790564069884544,0.1283714959839327,-0.1845584389489453,-0.11018324443227112,-0.12791235232335404,-0.012248067207345878,-0.06303744359951247],[-0.08166792852467014,-0.002254357306795178,0.018769977557728287,0.017423945229812592,0.05452688892761907,-0.0855849101348066,-0.056743108177447904,-0.07992878551835125,-0.013343360700314066,-0.008589184940738993,0.03239189856820735,0.036039889066289715,-0.08378384197731742,0.14214897333303222,0.1295948944067293,0.05819060527275569,0.11507062502967533,0.08628808859625478,-0.16964970956294168,-0.02994516038681072,-0.0937364329632988]]},{"inputs":[0,1,1,0,0,0,1,0,0,0,0,0,1,1,1,0,0,1,0,0,1],"outputs":[0,1,0,1,1,1],"biases":[0.01677154458491736,0.10381485603286933,-0.004408661063940921,-0.0522644283109919,-0.08504681116088886,-0.18890332649651023],"weights":[[-0.10348379063505048,0.021585329062023102,0.02729473757522516,-0.2776556886724778,0.10212366506157648,-0.14045531581208817],[0.03888238616046392,-0.06549819167827128,0.15898268049921854,0.012203066356192543,0.04492965407250733,-0.10934445061887231],[-0.029345902060859463,0.04938872918831668,0.09343418049924945,0.1942033580677831,-0.04609171385125219,0.028940252986052475],[-0.05345606100333615,0.16174396567002036,0.06131140651650835,-0.20303602767394344,-0.10955756545961377,-0.06281236418225647],[-0.08558515419335828,0.025183475305360928,0.12520670110327245,0.022145588563421782,0.022296608093188293,0.09634332064254889],[-0.12461259088590745,0.20186168982412608,-0.10799419038736871,0.2496474915664453,0.06581037518099826,0.19945842974889258],[0.015343924206945914,-0.010615751775951414,-0.12453958213949201,-0.14673944711987102,-0.12358612835175997,-0.08642258817615307],[0.0176290348181203,0.11270461877050128,0.0216206063048238,0.09283900549337014,0.011510039176879634,-0.15463261150111118],[-0.0616928421812617,-0.010438950060475023,0.0957445892316589,0.014893405841041096,-0.11768368246334232,0.2005428888375612],[-0.0010129438071189998,-0.18007655500653993,0.08778377794229555,-0.009830307706675107,0.03133874484897331,0.007649128555323537],[0.039298125340895156,0.10753592824709722,-0.011682555739897398,-0.023791489355638715,-0.1020832681147014,0.004856034059637929],[-0.05837883207155947,-0.12344108987451732,0.05071360192531309,-0.13060545768740642,-0.06898180690279465,0.03725953902756105],[-0.11946526482612199,0.06772845367896882,-0.03647711423900781,0.06580179980787634,0.08862502551907966,0.005858215370012992],[-0.041260118296792936,0.14981189479441676,-0.12655849951708728,0.11514337848240531,0.048263566436375346,-0.12482755297328538],[0.07561550427398038,0.15298595064903636,-0.029814028356126294,0.007504342050275531,-0.0008637147151676489,0.11240106102436165],[0.14359439780344718,-0.03888650358995116,-0.15448328853003934,-0.18383744226161378,0.11715002752657917,-0.005690532817812729],[-0.07826865821709231,-0.10622656467672005,-0.10276732005414584,-0.12663825163500264,-0.11655457626979436,-0.10756383082150758],[0.012890318097233566,0.022045118589275547,-0.025973730824358474,0.14494321727538031,0.049280817295015863,0.09841728771579121],[-0.08656698701933552,0.020715374260585086,0.12811298952934363,-0.07571813277829753,0.022930075974083718,0.02538783005438003],[-0.06816895955085875,0.09455212317988693,-0.009929736148240158,-0.028451189919682304,-0.027760734872844844,0.010894192401977015],[-0.07058285561510996,0.027332008235113614,0.08175158779286329,0.026512413054674625,0.05048658679356008,0.06129334223939796]]},{"inputs":[0,1,0,1,1,1],"outputs":[1,1,0,0],"biases":[-0.2539480014441004,-0.015046738325818222,-0.10176047202212374,-0.004702124774361979],"weights":[[-0.01422854810496954,-0.024214712352054413,-0.08962458502359613,-0.0537003881550958],[0.05889954588982674,0.014945649088834376,0.1244401602701177,-0.093527261424247],[-0.21518677390072355,-0.10810746113697055,-0.012710219566675049,0.023799782942142418],[0.017027141581676855,0.06618177610616395,-0.07146135692111871,-0.1858762969230052],[-0.050502852257398076,-0.12204046075783632,-0.01733527052709172,-0.08888534400893175],[0.024426541097035688,0.11557838117485304,-0.14763680798768328,0.037559919188289125]]}]}

{"layers":[{"inputs":[0.6043568690306979,0.5923200905198087,0.5621746028500978,0.5067459426542492,0.40925580713589227,0.22669734759960547,0.7036265695198058,0.6847987061287188,0,0.1689984552604087,0.5244736889475219,0.6577316817873498,0.7243779703630111,0.7616324329584591,0.7826572175483592,0.7929622662700418,0.7948058063601549],"outputs":[0,0,1,1,1,1,1,0,1,0,1,0,0,0,0,1,0,0,0,0,1],"biases":[-0.07534808379895823,0.11688274105620625,-0.058271765185367655,-0.07429456996867997,-0.03631499773041856,0.017414304754391333,-0.07406089168149455,-0.06775369634157194,-0.07935710763348261,-0.06996362925254641,0.03105666280486235,0.06332587486871191,0.06453727066213638,-0.06866287351645817,-0.12274466624759854,0.10723884416059119,0.09679387537773934,-0.15120053480119128,-0.00007469174232621612,0.0056444117388218164,-0.030331937351727088],"weights":[[-0.017457811679216804,0.10538278069993541,0.15465630699738753,-0.09185789258579542,-0.11594570185840758,-0.07686608956691916,0.12850706313989171,0.0024793302429700903,0.1177310979176543,-0.04507126366208859,-0.081682328734792,-0.08105264767049239,-0.10141304359460865,-0.11212193314868943,0.07400930457675924,0.017080534540734032,-0.1296417572606763,0.13081632195483933,-0.13990248813016357,-0.05465761020116549,0.0815019784742564],[0.04847963280894012,0.1147820354110721,-0.009144878490013858,-0.1197218754087003,-0.0468238430675407,0.016946586048210505,0.0011896927637766279,-0.09216131817693157,-0.001563257706853314,0.026336316134998785,0.00742929741631225,0.05413379005729529,-0.07145247832775328,-0.05286412371419859,0.044055013074614,0.05158692198784708,-0.0027618577539192416,-0.07108405092887023,-0.1531458233529368,-0.0935633677930211,0.025965412735102042],[0.046949450557675826,-0.047524169372803696,-0.017070019145818606,0.1668626669862039,-0.017857349705580658,-0.0711020339901811,0.03885944020663393,-0.043486659567461894,-0.11605847079057446,-0.09240897143129233,0.15105144163607465,-0.01609853228060456,-0.026148432071643607,-0.18520188818742914,-0.03962417718021243,-0.042052471644308476,-0.05742683127330124,0.09490553866480698,-0.17306368700804048,0.01953968355417316,0.05869679376405024],[-0.013951793998768626,0.04026220528285937,0.00022183764605029216,-0.014866070903419432,0.08800617582775538,0.15087453434843798,0.032570906036262864,0.0714913325371974,0.014252461527431717,-0.09059667589336753,0.05334265986943906,-0.0014129848170477324,0.0738163615945445,0.026956272325148255,0.10268653384253128,-0.19835166225676706,-0.07471091590912585,-0.17276267429831027,0.1405837763890237,-0.032637115673487364,-0.04236024137879648],[0.033506087895953746,0.18836124797217318,0.0005688079280755931,-0.2104520893510578,0.03923556076805486,-0.10894498878944137,0.21906314572996252,0.08986296053579136,-0.027091588886926223,0.0740220396938777,-0.09108028978441035,0.026339780333357155,-0.1842790421947324,0.13944837184986658,-0.06061160233920898,0.03322804641100858,-0.08021090900377811,-0.07287710196834946,-0.01144719384737818,0.06509342467672675,0.0006588911506364911],[0.008453254515500115,-0.1579600371739854,0.04033553277841521,0.07000019394667957,0.020738034157817574,-0.032601161402652304,0.026642490646818402,0.10680354507077103,-0.06675145990662118,-0.1152151570869632,-0.012389063868679169,0.08362144771130196,0.026562808467821348,-0.038946032275870304,-0.12023794452791195,0.0625191804341506,-0.0034404813214492405,-0.04333559545073239,-0.05686041032565121,0.014070542078877226,0.07751493671132836],[0.09355090106952672,0.034673397890100606,-0.0879360480891096,-0.09722896045655233,-0.04041258538265332,-0.022456344524426963,-0.07820783102870663,-0.01958469146997753,0.0824392352815469,-0.0257902275419959,0.07841565155683008,0.06589263059741071,-0.1470602186562277,-0.09543053398394066,-0.036297566121522136,-0.06060075502619281,0.044798133056355154,0.06378193996651244,0.037327056635563474,0.026872124694288256,0.05386928265110884],[-0.10478912277352367,0.04144453794961179,0.016007294652874125,-0.06183470733727489,0.015070082383258701,-0.04880187775237695,-0.008175814013036502,-0.04606142059248601,0.022439926841117227,-0.14096746312128314,-0.02491055450259301,-0.05775969854341554,0.007955747283637203,-0.15102923055949852,0.061138450131956686,0.0827995568729111,0.1286067541395941,0.08123748750923365,0.13545876054793204,-0.04300979428355969,-0.08291468991712961],[0.13098026319469835,-0.061861643098096344,-0.007997552210706707,-0.008712850495472393,-0.09762235040214376,0.024296069127726957,-0.10335529190830214,-0.049707837114410944,0.0989434694776328,-0.017596634935357673,-0.10376514996792126,0.056948261334808944,-0.1635563562082606,-0.09835515678158181,-0.1032653585617363,0.03679841988018891,-0.013744187182253322,0.05496369211277814,-0.01889307052430743,-0.023827536148551605,0.13847378957645606],[-0.19257044020008193,-0.0017320747661120697,-0.21723740872412325,-0.15410825540365203,-0.12259427178355956,-0.015329789380015226,0.07040158452108543,-0.04321942845496085,0.06685457047996256,-0.09610811392592138,-0.054910003901836237,0.02861184691385608,0.11882416625136419,-0.08552950645959725,-0.14824918102419957,-0.09874776195960795,-0.19651111758317089,-0.09629806618531947,-0.029579170958792443,0.055932253529920935,0.08152881477746152],[0.009870660520687712,-0.04606070168389602,-0.13919915366859098,0.05053652068965317,0.048835634650496895,0.23832162685871366,-0.002677393488472111,0.0651425172103779,0.06430803299446679,0.08251928296778611,0.16283497255568397,-0.07917448752504787,-0.06903586135281782,-0.018986569030989622,-0.1463594632052406,0.08115599572611694,-0.08530091301252302,0.02567104626905371,-0.07041412149056617,-0.10111121181071353,0.15813413874687746],[-0.155787496857409,-0.132688465872413,0.05916136463777784,0.1534734660147034,-0.12512935173721118,-0.04742737693586364,-0.12502164198704163,-0.07202390121465718,-0.0874879377013477,0.017089180716487178,0.08119204771155036,-0.0465483431067024,-0.019171302252412634,0.03042803559606945,-0.05292019244487846,0.1263622354314019,0.14793881962563354,-0.04442580366724587,-0.10600291896937299,-0.10763925718245566,0.037890938398868014],[-0.022019087160463607,-0.25002449891634687,0.1686321147360097,0.061051387554751695,0.1209115851928707,0.15878836380368277,0.006094258757581891,-0.07104336073403021,0.20363228904569713,-0.07713545740187289,-0.04208867027523586,-0.012524802899936464,-0.028039615002436447,-0.1490906809681301,-0.0010290517674279766,-0.01533646230857761,0.15399339743677068,-0.1831854317726541,0.13080227704324604,0.05105006985466504,0.010131259949039816],[-0.011397457113384902,-0.09565602235383193,0.24399568323291226,0.21929046563640345,0.04474706255492654,-0.10879603825198157,0.16388330053229117,0.027879372376544153,0.0003359516232075664,0.0657412045322706,-0.126869300828696,0.03753758689720702,0.014999636714906596,0.06373054446093177,-0.1069205281008355,0.13343999893490915,0.009768929088455731,-0.1410407650749896,-0.03404024648999022,0.02274952143279898,0.0025666471730384187],[0.006903162624816831,-0.11175795251858732,0.14176405383171772,-0.038314480015698274,-0.023092450511631724,-0.00650178917121947,-0.062267269167490646,-0.12864709587273448,0.08235817070396009,-0.04819942750783554,0.08040034738939489,0.040725893711248747,0.016286631651646143,-0.04445213409915104,0.13295406110000504,0.09186940254951514,0.03688090038199376,0.08875649105150688,-0.04244311971000013,-0.0607537933787512,0.04507480923960596],[0.05677626418487862,0.0660136262748568,-0.00022944252886497596,0.10175599266492585,0.16429960691026865,0.17732526400850768,-0.0342737028578104,-0.053886132445120236,0.0011202818453220926,0.0014227496453360355,0.010370907061016614,0.060964000103601076,-0.012793236089761462,0.0205815233107174,-0.0954782019965329,0.21936048010929035,0.019655808904718103,-0.03311263512858028,-0.03171020155020693,0.08894038224866216,-0.004482466254715798],[-0.037778976687017324,-0.04431160197844816,0.29615689666702805,0.07586741761422412,0.0580605533139857,-0.17181337755438988,0.07752339165146363,-0.12019732484419113,-0.117070943777596,0.07587699328166346,-0.09558222164127815,-0.040840916054639916,0.11088977080455978,-0.010335738041068035,-0.05080462383834463,0.07027044298298007,-0.04791099886392321,-0.036594922800537,0.12502764842465508,-0.09486925155952483,-0.09171224837065417]]},{"inputs":[0,0,1,1,1,1,1,0,1,0,1,0,0,0,0,1,0,0,0,0,1],"outputs":[0,0,0,1,1,0],"biases":[0.14741125048874124,0.17356153919367928,0.07589149207451167,-0.05589161110846018,-0.0335222442566384,0.014785303453971808],"weights":[[0.16391332403738795,0.0014132612741945706,-0.06978785667205928,0.04908747552809668,-0.20355915184189122,-0.1403961513306933],[0.10318981960110324,-0.0659448990972383,-0.006931750058312931,0.0935895457037389,0.07877896843736493,0.06853656671265884],[-0.09947763065875159,0.050886459370314954,-0.052656521861553354,0.06421732795376993,-0.15241170229893125,-0.14544309997093893],[0.05527874809760214,-0.0677591861662863,0.04729480520052149,0.009348706931147387,0.14010724852356884,0.11488852717906115],[-0.04028360961381322,-0.010198888225796825,0.01908138374752412,0.04792753538140107,-0.06631698809103552,-0.1798753104657022],[-0.07252924292561114,0.003774083057546009,-0.07340352949213096,-0.08606811988115001,0.09899891179670817,-0.05295344710026029],[-0.11785374641484421,-0.11167698258017145,0.1193934165744278,-0.08218264205142839,-0.062197897705914815,-0.19364055117088996],[-0.06925781872779754,-0.039530307518389186,-0.20011083755634373,-0.01294000882357353,-0.020402988107877183,-0.0392397335342825],[0.042668616990151786,-0.06181511965592188,0.03681922833836116,-0.1097843148446146,0.05250881958963788,-0.06997797371837114],[0.08282706356231659,-0.0402545457527743,-0.008149056704014099,0.09636544096641356,0.11286458948494785,-0.007034525565239987],[0.04558416509330277,0.11504721595790965,-0.05438623519644067,0.07878978356597517,-0.025090878044773175,0.07151197244104861],[-0.026311974435132047,0.13746932950148383,-0.029835441466794958,0.038167008212097564,-0.0688757024902556,-0.061495205468141925],[-0.022072143666466745,-0.05971956196089872,0.029024683569534394,-0.021728553952144368,0.12018492263106736,-0.0640967038337283],[0.1436883247446716,0.00670358949838528,0.006401875310571459,0.14199312319920643,0.08642106200060974,0.20847263057793264],[0.10497930423996477,0.2882238533148907,0.015786239757562368,0.12553022278260417,-0.011039628761362386,-0.032677561407224935],[-0.013230373015513244,0.10221469276652606,-0.11984490078213506,0.11884566934443301,0.12902971214857617,-0.09177684061551815],[-0.11904857139947399,0.1008742191450773,-0.025595102398947446,-0.14147048924415057,-0.04314495802927209,-0.019782353586010153],[0.05165788928495813,0.17947847385350943,-0.08385204078458383,-0.10328619495810729,0.058740411236276706,-0.0011240211436072955],[-0.13687266086239894,-0.07526932534581326,-0.059622059033253155,0.07817485500086246,0.017567841863983566,-0.018909068106512307],[0.1578586055189384,0.13683606101744705,0.014613624786857366,-0.047636452161472345,-0.061160673322381315,0.04987484186590932],[0.18498370125912697,0.02661827623667087,-0.06538728422954607,-0.06459529783688761,0.04513012338608464,0.05444599803060181]]},{"inputs":[0,0,0,1,1,0],"outputs":[1,1,0,0],"biases":[-0.17491581715153298,0.06656302658540553,-0.1403586380717857,0.1608166505458923],"weights":[[-0.1474360592283696,-0.0603566311700179,0.21702083901262723,-0.11817631476398605],[-0.031462213458004686,-0.12173865916697794,0.09170012842722713,-0.1781830307420616],[0.14292299982088877,-0.06186772238383967,0.00893589411623203,0.06015128199938069],[0.08999601744878388,0.07116926283160975,-0.03452790127325271,-0.06187779288036216],[0.01229337602127635,0.07434661575581657,-0.18296382854139726,0.0639936531727811],[0.1787953669714332,0.0008349901167239784,0.030978318389962095,-0.057310811806410095]]}]}f