{"layers":[{"inputs":[0.8702290862677573,0.8678007379149515,0.8597887863243081,0.8443767022845406,0.8172684986549643,0.4996697465004628,0.2764930073846077,0,0,0,0.3317239176848502,0.4198305609876478,0.545149566774326,0.613739638303759,0.652758330638836,0.6732111060572332,0.6797666839662383],"outputs":[0,1,1,0,0,0,1,0,0,0,0,0,1,1,1,0,0,1,0,0,1],"biases":[0.05557349325278467,0.12255517422542223,0.0034023414736752064,0.12204970660724168,0.132056845871769,0.06506383578238968,-0.055752311485769694,-0.01916339135058283,0.09539186313282498,0.044734661777992644,0.02719348866368059,0.03454989564902846,0.040542826173691295,0.06885025092010377,0.0184645283126397,0.16291394581262902,-0.004921548073303722,0.13933269542054508,-0.033785587005898926,0.060075224697859586,0.013438464580708694],"weights":[[0.024292084044791412,0.07083352825487746,0.026564173856369062,0.10874014016509681,-0.06345631057971161,-0.017626014364570022,-0.07255897469377595,-0.029700457465171175,-0.12271457901691679,0.014670274032386812,-0.16574589935108122,-0.027794956245023955,0.01240904903104219,-0.013144679454602182,0.05705796489673083,0.08113105279755553,0.045113024576431945,-0.1333100243742102,-0.15823092777214298,-0.09060388737771327,0.03489155669471009],[-0.06119728935492818,0.0954824171220539,-0.022480216141905103,-0.09215840429744879,-0.00453770617460305,0.13738681146356466,0.06801445484862649,0.08506644590733016,0.2338282552831726,-0.04524786575017743,0.015299321254285129,-0.011810385393168643,-0.0051693240454263635,-0.006933623446478642,0.09249194085644666,-0.20558770712200225,0.004141565937261553,0.04432447192564663,-0.12624036126788063,0.061147944659506945,0.05133930556903692],[0.05213347197887104,-0.1414460278119219,-0.293326974980008,-0.10861694550795459,0.09396415548655429,-0.12413965432771558,-0.018251200022774243,-0.007058172696048297,-0.08857987205116208,-0.07015892287871688,-0.10427216721474433,0.06165244632304717,0.11394139996172473,0.024669796691348507,0.0656728312552327,-0.14221319953105285,-0.028886056181458876,0.046032590517926825,-0.11360268597316875,0.06107065845889699,-0.06692209243297369],[-0.16301022092729103,0.0640904925586563,0.06864693556645494,0.00032267867711820164,-0.10953863290947367,-0.12329490572985385,0.1352172292941381,0.030699207524856238,0.009928835220339147,-0.14950118163108833,-0.19017154043226392,-0.0029161646345997744,0.13679228006216623,-0.08826919858413389,-0.005359763428491336,-0.09956521136877709,0.004245416415636735,-0.010900147807300852,-0.1793827212308339,-0.05594507262183525,0.19750799609163144],[-0.08551527730014971,0.11110455834394002,-0.02954087975229007,-0.06029808261565968,0.03603806186892987,-0.12985609768387524,-0.015602923920306315,-0.059510041564747505,-0.13666803202028743,0.017564160856285614,-0.11125038946580937,-0.02358778490330442,0.12728295759050698,0.03874347269678794,-0.005604454666337716,0.030709466156090794,-0.1191013444862009,0.146035558052369,0.10389435709888548,-0.18844776557196163,0.07247467424279963],[-0.056505096729790226,0.0444235195823312,0.05763876966393802,0.07672545983931042,-0.054171555978593765,0.25643534295871506,0.0024307451152340495,0.06316343088838734,-0.011180054082020614,0.06271404003328207,0.1427983000231597,0.03892517259036399,0.06471557836699635,0.21759874229016238,-0.02753312035149071,-0.14548234108501729,0.1404679397505764,0.08409935710971025,-0.05713833840661411,-0.022410111078235047,0.18110582754528295],[0.21775697274606728,0.05451561526680037,0.029791893802275933,-0.0758345100854526,-0.053817388517375775,-0.06174001415424686,0.10809006456368932,0.06868130363692714,-0.0376969352105269,0.0319571624590658,-0.04209532729223635,0.12392613413865952,0.1530301618229383,0.031467899905824076,0.10323024850734083,-0.04993706015613444,0.08782109339062893,0.0436430082060424,0.059310180741468,0.056300551125464574,-0.1234473486637909],[-0.04985554851686885,0.11117897755777686,-0.14302124017013618,0.12086689517609156,-0.11963056935005487,-0.020090242653731036,0.07337524745096229,0.05527984041375604,0.0025349944068808056,-0.0304623815260856,-0.08600700293414155,0.11132907816428927,-0.13976621844579626,0.08406851058788951,-0.06087522551293342,0.008150088463139693,0.07980954280884722,-0.02274219311792249,-0.013292435967150504,0.10943348152331667,0.03516607928381875],[0.04137464846327524,-0.09519761369415244,0.12221693527804686,-0.08235076155292215,-0.13141101891619275,0.10865486377680544,0.11706007536421584,0.04593110060355442,0.04191476769655307,-0.13097155531130125,0.18138453055967663,-0.03471096250312772,-0.03952345514808129,-0.15401289331329707,0.005470969074765773,0.031645504156951734,-0.12701323101699274,0.0867381171734574,0.08428522586635429,0.006362861322110384,-0.10178088983635365],[0.006662160463220004,-0.028405122492391237,-0.006052821234852998,0.14361555992809913,-0.0496832945704851,0.01841540762294109,-0.034186609342169,-0.14649468388613124,-0.1229675808069102,-0.10853279171029494,0.09628837815445532,-0.019001629277433877,-0.013140347614419765,-0.060891396164934004,0.18300570665365987,-0.050230615533860004,0.0211696482143686,-0.048066081010626815,0.08290003011211448,0.17383158800577803,-0.043317098489520936],[-0.1339298730729412,0.014819029108797517,0.08472096111759429,-0.0991319182497154,0.0691495192309591,0.016967002762809696,-0.019860394710651326,0.06313856701996559,0.07499959785819074,0.050973315194288694,-0.031228202233042186,-0.028293624783662145,-0.06948997278510988,-0.055520230247808694,-0.03556353279242807,0.039715239262850976,-0.12810713788869,-0.0450519133052991,0.05345100987330061,0.05352122195746234,-0.00560541937179905],[-0.04908994672544375,-0.02361885905977012,0.055698363492166385,-0.07578830548192096,0.13104860708314714,0.009737371506569219,-0.07078279259052339,0.0227876410504963,0.003871366707081783,0.06534198261580781,-0.11503084244711231,0.06729161959282866,-0.16846982613146266,0.18251757982163747,0.1974039096498854,0.0034320770867517086,-0.16257192020575875,0.24620344930814095,-0.0625751854657551,-0.12838507051362544,-0.019769443628126243],[0.23566670082290167,-0.07835549635789828,-0.09681532115109162,-0.012680348511216626,0.024727776053470072,0.08167559465041539,-0.12900945990673876,-0.1710101712142646,-0.19216890711444468,-0.1825693339378456,0.17333934757747216,-0.12513262188767,0.011118305259500388,0.1279359507777814,-0.08519209056833305,-0.048187467989181276,0.009577877725434204,0.08228606228482867,-0.008395383658873483,-0.1616070644687555,-0.009618735617065957],[0.065865272229227,0.07608546475823058,0.199104235056795,0.005342722299875537,-0.031089284982720962,0.022193561301332695,0.014331948672050756,0.05532417426016378,-0.10062407530679335,0.034326115903250104,-0.10023674437551387,0.07165506150058033,-0.045162369117278396,0.03086838829138061,0.09208347357370279,0.12048001976637505,0.039113988168324565,-0.0042142922310021876,0.011961918591569132,0.03012716788033986,-0.048108839242556774],[-0.11675448456793897,-0.12164799677802468,0.062068245783127265,-0.08051126549728371,-0.022109305028599924,-0.06104808658844467,0.0252391825640011,-0.08191781152393135,-0.004071150247850458,-0.08228302107879709,-0.029544366215663594,-0.1385683141129375,-0.08830266761717254,0.01934238092944271,-0.12482155147395935,0.06906381942376955,0.055578665048640334,0.06328295258328537,0.02538802604118523,-0.040334713564525,0.10862950196654146],[0.07907684632820336,0.058646983999257926,0.03454043012870784,0.1239253027594662,0.13596863648340157,-0.007938002847969028,-0.03311254003147276,0.06425643532536676,-0.062357508092324834,0.02126203662464868,-0.10098527322980891,-0.06199377356494919,-0.06103380729399675,-0.004553066710904198,0.06790564069884544,0.1283714959839327,-0.1845584389489453,-0.11018324443227112,-0.12791235232335404,-0.012248067207345878,-0.06303744359951247],[-0.08166792852467014,-0.002254357306795178,0.018769977557728287,0.017423945229812592,0.05452688892761907,-0.0855849101348066,-0.056743108177447904,-0.07992878551835125,-0.013343360700314066,-0.008589184940738993,0.03239189856820735,0.036039889066289715,-0.08378384197731742,0.14214897333303222,0.1295948944067293,0.05819060527275569,0.11507062502967533,0.08628808859625478,-0.16964970956294168,-0.02994516038681072,-0.0937364329632988]]},{"inputs":[0,1,1,0,0,0,1,0,0,0,0,0,1,1,1,0,0,1,0,0,1],"outputs":[0,1,0,1,1,1],"biases":[0.01677154458491736,0.10381485603286933,-0.004408661063940921,-0.0522644283109919,-0.08504681116088886,-0.18890332649651023],"weights":[[-0.10348379063505048,0.021585329062023102,0.02729473757522516,-0.2776556886724778,0.10212366506157648,-0.14045531581208817],[0.03888238616046392,-0.06549819167827128,0.15898268049921854,0.012203066356192543,0.04492965407250733,-0.10934445061887231],[-0.029345902060859463,0.04938872918831668,0.09343418049924945,0.1942033580677831,-0.04609171385125219,0.028940252986052475],[-0.05345606100333615,0.16174396567002036,0.06131140651650835,-0.20303602767394344,-0.10955756545961377,-0.06281236418225647],[-0.08558515419335828,0.025183475305360928,0.12520670110327245,0.022145588563421782,0.022296608093188293,0.09634332064254889],[-0.12461259088590745,0.20186168982412608,-0.10799419038736871,0.2496474915664453,0.06581037518099826,0.19945842974889258],[0.015343924206945914,-0.010615751775951414,-0.12453958213949201,-0.14673944711987102,-0.12358612835175997,-0.08642258817615307],[0.0176290348181203,0.11270461877050128,0.0216206063048238,0.09283900549337014,0.011510039176879634,-0.15463261150111118],[-0.0616928421812617,-0.010438950060475023,0.0957445892316589,0.014893405841041096,-0.11768368246334232,0.2005428888375612],[-0.0010129438071189998,-0.18007655500653993,0.08778377794229555,-0.009830307706675107,0.03133874484897331,0.007649128555323537],[0.039298125340895156,0.10753592824709722,-0.011682555739897398,-0.023791489355638715,-0.1020832681147014,0.004856034059637929],[-0.05837883207155947,-0.12344108987451732,0.05071360192531309,-0.13060545768740642,-0.06898180690279465,0.03725953902756105],[-0.11946526482612199,0.06772845367896882,-0.03647711423900781,0.06580179980787634,0.08862502551907966,0.005858215370012992],[-0.041260118296792936,0.14981189479441676,-0.12655849951708728,0.11514337848240531,0.048263566436375346,-0.12482755297328538],[0.07561550427398038,0.15298595064903636,-0.029814028356126294,0.007504342050275531,-0.0008637147151676489,0.11240106102436165],[0.14359439780344718,-0.03888650358995116,-0.15448328853003934,-0.18383744226161378,0.11715002752657917,-0.005690532817812729],[-0.07826865821709231,-0.10622656467672005,-0.10276732005414584,-0.12663825163500264,-0.11655457626979436,-0.10756383082150758],[0.012890318097233566,0.022045118589275547,-0.025973730824358474,0.14494321727538031,0.049280817295015863,0.09841728771579121],[-0.08656698701933552,0.020715374260585086,0.12811298952934363,-0.07571813277829753,0.022930075974083718,0.02538783005438003],[-0.06816895955085875,0.09455212317988693,-0.009929736148240158,-0.028451189919682304,-0.027760734872844844,0.010894192401977015],[-0.07058285561510996,0.027332008235113614,0.08175158779286329,0.026512413054674625,0.05048658679356008,0.06129334223939796]]},{"inputs":[0,1,0,1,1,1],"outputs":[1,1,0,0],"biases":[-0.2539480014441004,-0.015046738325818222,-0.10176047202212374,-0.004702124774361979],"weights":[[-0.01422854810496954,-0.024214712352054413,-0.08962458502359613,-0.0537003881550958],[0.05889954588982674,0.014945649088834376,0.1244401602701177,-0.093527261424247],[-0.21518677390072355,-0.10810746113697055,-0.012710219566675049,0.023799782942142418],[0.017027141581676855,0.06618177610616395,-0.07146135692111871,-0.1858762969230052],[-0.050502852257398076,-0.12204046075783632,-0.01733527052709172,-0.08888534400893175],[0.024426541097035688,0.11557838117485304,-0.14763680798768328,0.037559919188289125]]}]}